[
    {
        "index": 0,
        "weights": [
            [
                0.6096807211101537,
                0.336682906268725
            ],
            [
                0.11065445515374678,
                0.2748821596725011
            ],
            [
                0.384968107240585,
                0.6888925144575766
            ],
            [
                0.04478999848094283,
                0.3803586308920484
            ],
            [
                0.7116915964981061,
                0.6642770350344955
            ],
            [
                1.461371280683314,
                -0.991673625799125
            ],
            [
                0.4137806209841921,
                0.2974318874824714
            ],
            [
                -0.09982572044933406,
                -0.11468200839601522
            ],
            [
                -0.10733969244359376,
                0.2574408859564711
            ],
            [
                0.7778937972477857,
                -0.312292874653361
            ],
            [
                0.39085818558856333,
                0.32548308991839436
            ],
            [
                0.14273867942973098,
                0.7755944508594399
            ],
            [
                0.5235418564089596,
                -0.13953518924954528
            ],
            [
                0.6060750240500561,
                0.28536858742675203
            ],
            [
                0.05657589246399646,
                0.15841132783981102
            ],
            [
                0.27268340421979437,
                1.013482193076543
            ],
            [
                -0.03325043914081876,
                -0.018034905952597144
            ],
            [
                0.9813684180103438,
                -0.44925919575762313
            ],
            [
                -0.16678855198693934,
                0.37575718092603044
            ],
            [
                0.5473323881342413,
                0.5562002126492905
            ],
            [
                0.25422026218993216,
                0.9361060197726657
            ],
            [
                1.0555661727767454,
                1.1762957673949261
            ],
            [
                0.9275265502064034,
                -0.5511100324622151
            ],
            [
                0.19882355670988958,
                0.255663562798619
            ],
            [
                0.6611177024214748,
                0.6523461637727423
            ],
            [
                0.6697362445298183,
                0.7657885345276072
            ],
            [
                0.4957666358526672,
                0.5232517472494589
            ],
            [
                0.03163498358207703,
                0.19294761107367434
            ],
            [
                0.6348165311362621,
                0.1850860182212394
            ],
            [
                1.041484227824364,
                -0.7330370420675276
            ],
            [
                0.13252698574680283,
                0.20996085963079578
            ],
            [
                0.39449687878045436,
                0.2702168282883054
            ],
            [
                0.013822941287552551,
                0.08775540615645738
            ],
            [
                0.696844772312797,
                0.6973958046569887
            ],
            [
                0.17963257347957448,
                0.6158464163022135
            ],
            [
                -0.4083852033966832,
                0.546062773998608
            ],
            [
                0.4900309358853964,
                0.8811435328315457
            ],
            [
                0.71721573839243,
                0.8155382955280891
            ],
            [
                0.11679992271047786,
                0.998326196465971
            ],
            [
                -0.17608530223188718,
                0.6169732534556615
            ],
            [
                1.1652142992359529,
                1.108589703040155
            ],
            [
                0.5319400269821853,
                0.6540196315162503
            ],
            [
                -0.3686080071916439,
                0.91215573034711
            ],
            [
                0.30127484627005446,
                0.21535004632717117
            ],
            [
                0.49536082579588536,
                0.1990954353201382
            ],
            [
                0.2635421621354997,
                0.08398293776617248
            ],
            [
                0.27601820360671153,
                0.6013836196094591
            ],
            [
                0.03540643122827382,
                -0.02098058805358197
            ],
            [
                0.34861018361099455,
                0.37561777927831463
            ],
            [
                -1.0272370515359104,
                1.673162494215966
            ],
            [
                0.006403478136738231,
                0.2726142046093037
            ],
            [
                0.5847090360519772,
                0.6794681206709595
            ],
            [
                -0.43136270803808385,
                0.8571885764711774
            ],
            [
                0.25897053005710424,
                1.2051107328067727
            ],
            [
                0.2971414370543786,
                0.22602037974474318
            ],
            [
                0.8248383670400158,
                0.7440343487848341
            ],
            [
                0.8374412653937977,
                0.8460642454564027
            ],
            [
                0.777694636898111,
                0.5234003104156205
            ],
            [
                0.8395193658978523,
                -0.15173853694499193
            ],
            [
                -0.10656692800183636,
                0.3724018340750881
            ]
        ],
        "bias": [
            0.09423030696229691,
            0.03676843802478328,
            0.11747739794162003,
            0.19920454234867685,
            -0.16554968693417224,
            0.470325735386356,
            0.31525327038160883,
            0.7928783603501488,
            0.03820551144812168,
            0.12439337889053366,
            -0.1552941401814743,
            0.41366591461968927,
            0.00034059162635317896,
            -0.20877408852992024,
            0.4024500749902121,
            0.43846324803451653,
            0.42928496920953185,
            0.0878377954490361,
            0.049147058049208846,
            -0.171068485337926,
            0.39039004011282574,
            -0.3317579125281951,
            0.22362683013884405,
            -0.10810586935277902,
            -0.22986121712102034,
            0.34105644765133014,
            -0.17991780404161295,
            0.1544921037599734,
            0.28554383107201453,
            0.3582948514425369,
            -0.02999628160919711,
            0.41549185632611946,
            0.3823762788647622,
            0.23711425431617392,
            -0.1472119750091498,
            0.26944317250671246,
            0.1509738784915215,
            -0.1686457368635997,
            0.42785635775519626,
            0.06337910864457293,
            -0.2988631790949956,
            0.634707615076216,
            0.35459886745722496,
            0.16820827600027807,
            0.32846024655991135,
            -0.13138433817779754,
            0.4027397352705233,
            0.1929117043431826,
            0.1981589962596483,
            0.4708178842076126,
            0.25847144387837834,
            0.4550310905284992,
            0.19507451481903984,
            0.4567005815375094,
            0.16659946808035142,
            -0.258697252552462,
            -0.2788124477584272,
            0.4280140797143953,
            0.3114494599698013,
            -0.1269735434674162
        ]
    },
    {
        "index": 1
    },
    {
        "index": 2,
        "weights": [
            [
                -0.1329633593357984,
                0.2427190065212944,
                -0.33942766392780127,
                0.1667903963949554,
                0.26590962060588463,
                -0.3972457508994621,
                0.025341344219019957,
                0.7505104332061736,
                0.08657986439631998,
                -0.37274729749687563,
                0.6697729400425209,
                -0.25515660478439084,
                -0.06700848519611928,
                -0.21458192685818536,
                0.7129391399276688,
                -0.4654038342159796,
                0.46089650579256874,
                -0.4288329997153813,
                0.24499952869590041,
                0.36642717555323756,
                -0.4211154168823721,
                0.1406939091630602,
                -0.37354133287216296,
                0.6578479622683889,
                0.3286140863724796,
                0.02990245684134933,
                0.7056405500411893,
                -0.10036567256817465,
                -0.2554670285021087,
                -0.23414122758039874,
                0.33116816505000946,
                0.44635226038946385,
                0.41110086936646,
                0.31119187781341223,
                0.011618663754006392,
                0.214430978440004,
                -0.30019513411862064,
                0.3005309689323338,
                -0.3606220003138737,
                -0.1291350541241546,
                0.2227382896356106,
                0.17009139356428996,
                -0.01650751563253037,
                0.0940181427034554,
                -0.10165088822656956,
                0.628621034863525,
                -0.10546388522096407,
                0.5103037839437938,
                0.262142189850745,
                -0.6134954515884767,
                -0.009490889616551056,
                -0.5329182003886107,
                -0.09057496089148385,
                -0.7701199651461557,
                -0.28662645603307746,
                0.6849711680856844,
                0.9092635434754313,
                -0.4107164692870619,
                -0.4852124027052415,
                0.4024013138098358
            ],
            [
                0.09550128730510804,
                0.28252224714047486,
                0.20050988671724945,
                0.059308867931094425,
                -0.050758603881093746,
                0.3895993020906978,
                -0.02836895026348033,
                -0.12819751329868376,
                0.6548185722742628,
                0.3593757444118467,
                0.07246046093236029,
                -0.16075230679996616,
                0.4237782528631181,
                -0.10371629021972692,
                -0.06819673772001245,
                -0.14724687331995215,
                0.03378549748880165,
                0.7316048468416197,
                0.6673256974161996,
                -0.005233518215441326,
                -0.05144083365440987,
                -0.22050754679091922,
                0.6238941862680175,
                0.20428772020976782,
                -0.13973108081950916,
                -0.19178869051254693,
                -0.0030090679919603995,
                0.4135242411866087,
                0.030306073279406754,
                0.4472202351708271,
                0.33909023242633574,
                -0.24800936493521392,
                0.10959990981785925,
                -0.2426400108688911,
                0.058784115728385364,
                0.5037634698076229,
                0.12248681642424986,
                -0.012770638292241818,
                -0.1693372502265172,
                0.4361622476135253,
                -0.16310298587537192,
                -0.4451218255735225,
                0.05984571084478839,
                0.1524832556718176,
                -0.022987243096150092,
                0.28279781870469806,
                -0.10818837871396575,
                0.5114631217610421,
                -0.046585843992603036,
                0.729390644552658,
                0.26642676754447625,
                -0.18090012365023048,
                0.5477905319301775,
                -0.051398013724761056,
                0.11468731324276135,
                -0.12893629122718503,
                -0.08559563499200533,
                -0.1871259379290086,
                0.014512115692996158,
                0.9967721180303892
            ]
        ],
        "bias": [
            1.7284308449517818,
            -0.5877134161180471
        ]
    }
]